<?xml version="1.0"?>
<opencv_storage>
<cascade>
  <stageType>BOOST</stageType>
  <featureType>HAAR</featureType>
  <height>24</height>
  <width>24</width>
  <stageParams>
    <boostType>GAB</boostType>
    <minHitRate>9.9500000476837158e-01</minHitRate>
    <maxFalseAlarm>5.0000000000000000e-01</maxFalseAlarm>
    <weightTrimRate>9.4999998807907104e-01</weightTrimRate>
    <maxDepth>1</maxDepth>
    <maxWeakCount>100</maxWeakCount></stageParams>
  <featureParams>
    <maxCatCount>0</maxCatCount>
    <featSize>1</featSize>
    <mode>BASIC</mode></featureParams>
  <stageNum>17</stageNum>
  <stages>
    <!-- stage 0 -->
    <_>
      <maxWeakCount>3</maxWeakCount>
      <stageThreshold>-9.6869862079620361e-01</stageThreshold>
      <weakClassifiers>
        <_>
          <internalNodes>
            0 -1 32 -3.6812347173690796e-01</internalNodes>
          <leafValues>
            6.4137929677963257e-01 -9.1608393192291260e-01</leafValues></_>
        <_>
          <internalNodes>
            0 -1 36 -2.8880763798952103e-02</internalNodes>
          <leafValues>
            6.5354251861572266e-01 -8.2770109176635742e-01</leafValues></_>
        <_>
          <internalNodes>
            0 -1 31 8.6158812046051025e-03</internalNodes>
          <leafValues>
            -7.0615726709365845e-01 8.0934995412826538e-01</leafValues></_></weakClassifiers></_>
    <!-- stage 1 -->
    <_>
      <maxWeakCount>3</maxWeakCount>
      <stageThreshold>-1.0676426887512207e+00</stageThreshold>
      <weakClassifiers>
        <_>
          <internalNodes>
            0 -1 71 -2.2277478128671646e-02</internalNodes>
          <leafValues>
            6.9911503791809082e-01 -7.7987420558929443e-01</leafValues></_>
        <_>
          <internalNodes>
            0 -1 1 2.3458430543541908e-02</internalNodes>
          <leafValues>
            -8.3709686994552612e-01 5.3487694263458252e-01</leafValues></_>
        <_>
          <internalNodes>
            0 -1 79 1.0550150182098150e-04</internalNodes>
          <leafValues>
            -7.6014214754104614e-01 5.4932832717895508e-01</leafValues></_></weakClassifiers></_>
    <!-- stage 2 -->
    <_>
      <maxWeakCount>5</maxWeakCount>
      <stageThreshold>-1.2203992605209351e+00</stageThreshold>
      <weakClassifiers>
        <_>
          <internalNodes>
            0 -1 52 -1.2381771579384804e-02</internalNodes>
          <leafValues>
            5.7407408952713013e-01 -7.1517026424407959e-01</leafValues></_>
        <_>
          <internalNodes>
            0 -1 67 -4.8157252371311188e-02</internalNodes>
          <leafValues>
            5.1252132654190063e-01 -8.4332740306854248e-01</leafValues></_>
        <_>
          <internalNodes>
            0 -1 3 1.2255663052201271e-02</internalNodes>
          <leafValues>
            -8.2940560579299927e-01 4.3992549180984497e-01</leafValues></_>
        <_>
          <internalNodes>
            0 -1 72 -1.6308108344674110e-02</internalNodes>
          <leafValues>
            7.0541810989379883e-01 -6.3993704319000244e-01</leafValues></_>
        <_>
          <internalNodes>
            0 -1 11 -4.0763334254734218e-05</internalNodes>
          <leafValues>
            5.9413462877273560e-01 -7.5113445520401001e-01</leafValues></_></weakClassifiers></_>
    <!-- stage 3 -->
    <_>
      <maxWeakCount>3</maxWeakCount>
      <stageThreshold>-5.2662450075149536e-01</stageThreshold>
      <weakClassifiers>
        <_>
          <internalNodes>
            0 -1 23 5.4744139313697815e-02</internalNodes>
          <leafValues>
            -7.6699030399322510e-01 5.5737704038619995e-01</leafValues></_>
        <_>
          <internalNodes>
            0 -1 41 1.6194535791873932e-01</internalNodes>
          <leafValues>
            -6.0226416587829590e-01 7.5407153367996216e-01</leafValues></_>
        <_>
          <internalNodes>
            0 -1 50 -2.6045575737953186e-02</internalNodes>
          <leafValues>
            9.4822204113006592e-01 -4.8173737525939941e-01</leafValues></_></weakClassifiers></_>
    <!-- stage 4 -->
    <_>
      <maxWeakCount>4</maxWeakCount>
      <stageThreshold>-1.4687242507934570e+00</stageThreshold>
      <weakClassifiers>
        <_>
          <internalNodes>
            0 -1 51 -4.0411323308944702e-02</internalNodes>
          <leafValues>
            3.7333333492279053e-01 -8.0071175098419189e-01</leafValues></_>
        <_>
          <internalNodes>
            0 -1 6 9.6000991761684418e-03</internalNodes>
          <leafValues>
            -5.8183771371841431e-01 7.2577404975891113e-01</leafValues></_>
        <_>
          <internalNodes>
            0 -1 26 -4.9977868795394897e-02</internalNodes>
          <leafValues>
            4.2386415600776672e-01 -9.3975013494491577e-01</leafValues></_>
        <_>
          <internalNodes>
            0 -1 74 -1.1852178722620010e-02</internalNodes>
          <leafValues>
            6.9627565145492554e-01 -5.1003903150558472e-01</leafValues></_></weakClassifiers></_>
    <!-- stage 5 -->
    <_>
      <maxWeakCount>3</maxWeakCount>
      <stageThreshold>-8.3698165416717529e-01</stageThreshold>
      <weakClassifiers>
        <_>
          <internalNodes>
            0 -1 17 1.6168124973773956e-02</internalNodes>
          <leafValues>
            -7.5000000000000000e-01 4.6456691622734070e-01</leafValues></_>
        <_>
          <internalNodes>
            0 -1 13 -1.3178350403904915e-02</internalNodes>
          <leafValues>
            7.3599714040756226e-01 -6.1307376623153687e-01</leafValues></_>
        <_>
          <internalNodes>
            0 -1 80 4.0635710320202634e-05</internalNodes>
          <leafValues>
            -6.5434581041336060e-01 5.2609211206436157e-01</leafValues></_></weakClassifiers></_>
    <!-- stage 6 -->
    <_>
      <maxWeakCount>5</maxWeakCount>
      <stageThreshold>-1.4904172420501709e+00</stageThreshold>
      <weakClassifiers>
        <_>
          <internalNodes>
            0 -1 35 -6.1104588210582733e-02</internalNodes>
          <leafValues>
            6.6265058517456055e-01 -6.4367818832397461e-01</leafValues></_>
        <_>
          <internalNodes>
            0 -1 64 -3.3560595475137234e-03</internalNodes>
          <leafValues>
            4.8037925362586975e-01 -6.5973758697509766e-01</leafValues></_>
        <_>
          <internalNodes>
            0 -1 37 -1.0363293811678886e-02</internalNodes>
          <leafValues>
            7.3994249105453491e-01 -4.6756267547607422e-01</leafValues></_>
        <_>
          <internalNodes>
            0 -1 62 4.8753097653388977e-03</internalNodes>
          <leafValues>
            -5.0366485118865967e-01 6.1775231361389160e-01</leafValues></_>
        <_>
          <internalNodes>
            0 -1 73 2.0590275526046753e-02</internalNodes>
          <leafValues>
            -4.2327919602394104e-01 8.2302439212799072e-01</leafValues></_></weakClassifiers></_>
    <!-- stage 7 -->
    <_>
      <maxWeakCount>4</maxWeakCount>
      <stageThreshold>-1.0385106801986694e+00</stageThreshold>
      <weakClassifiers>
        <_>
          <internalNodes>
            0 -1 16 2.3538678884506226e-02</internalNodes>
          <leafValues>
            -8.4070795774459839e-01 1.0243902355432510e-01</leafValues></_>
        <_>
          <internalNodes>
            0 -1 56 -2.5801649317145348e-02</internalNodes>
          <leafValues>
            2.6031702756881714e-01 -8.6482715606689453e-01</leafValues></_>
        <_>
          <internalNodes>
            0 -1 39 -2.3006312549114227e-02</internalNodes>
          <leafValues>
            3.2354974746704102e-01 -8.6305826902389526e-01</leafValues></_>
        <_>
          <internalNodes>
            0 -1 76 3.0173698905855417e-04</internalNodes>
          <leafValues>
            -6.7034083604812622e-01 4.0493848919868469e-01</leafValues></_></weakClassifiers></_>
    <!-- stage 8 -->
    <_>
      <maxWeakCount>6</maxWeakCount>
      <stageThreshold>-1.0375657081604004e+00</stageThreshold>
      <weakClassifiers>
        <_>
          <internalNodes>
            0 -1 34 -7.2239041328430176e-02</internalNodes>
          <leafValues>
            7.7142858505249023e-01 -6.1772853136062622e-01</leafValues></_>
        <_>
          <internalNodes>
            0 -1 15 1.9378047436475754e-02</internalNodes>
          <leafValues>
            -7.8632736206054688e-01 3.4548446536064148e-01</leafValues></_>
        <_>
          <internalNodes>
            0 -1 12 -7.4641829996835440e-05</internalNodes>
          <leafValues>
            4.8519432544708252e-01 -5.9358817338943481e-01</leafValues></_>
        <_>
          <internalNodes>
            0 -1 40 -1.7131655476987362e-03</internalNodes>
          <leafValues>
            6.1238646507263184e-01 -4.6139273047447205e-01</leafValues></_>
        <_>
          <internalNodes>
            0 -1 63 -6.0307253152132034e-03</internalNodes>
          <leafValues>
            7.1539580821990967e-01 -3.8729926943778992e-01</leafValues></_>
        <_>
          <internalNodes>
            0 -1 55 1.9462688267230988e-01</internalNodes>
          <leafValues>
            -3.4379142522811890e-01 7.9611515998840332e-01</leafValues></_></weakClassifiers></_>
    <!-- stage 9 -->
    <_>
      <maxWeakCount>7</maxWeakCount>
      <stageThreshold>-1.2834968566894531e+00</stageThreshold>
      <weakClassifiers>
        <_>
          <internalNodes>
            0 -1 53 -1.2122517079114914e-01</internalNodes>
          <leafValues>
            9.2156863212585449e-01 -5.6842106580734253e-01</leafValues></_>
        <_>
          <internalNodes>
            0 -1 14 3.0731644481420517e-02</internalNodes>
          <leafValues>
            -5.3796857595443726e-01 4.5707687735557556e-01</leafValues></_>
        <_>
          <internalNodes>
            0 -1 33 -1.5735048055648804e-01</internalNodes>
          <leafValues>
            2.2875452041625977e-01 -9.0324026346206665e-01</leafValues></_>
        <_>
          <internalNodes>
            0 -1 45 -3.3321440219879150e-02</internalNodes>
          <leafValues>
            8.3772104978561401e-01 -2.6851901412010193e-01</leafValues></_>
        <_>
          <internalNodes>
            0 -1 47 -1.1731815524399281e-02</internalNodes>
          <leafValues>
            5.9856134653091431e-01 -4.8942643404006958e-01</leafValues></_>
        <_>
          <internalNodes>
            0 -1 57 -2.6461202651262283e-02</internalNodes>
          <leafValues>
            8.2684433460235596e-01 -2.8936934471130371e-01</leafValues></_>
        <_>
          <internalNodes>
            0 -1 9 -1.9452461972832680e-02</internalNodes>
          <leafValues>
            6.4145302772521973e-01 -3.4813266992568970e-01</leafValues></_></weakClassifiers></_>
    <!-- stage 10 -->
    <_>
      <maxWeakCount>6</maxWeakCount>
      <stageThreshold>-9.6418571472167969e-01</stageThreshold>
      <weakClassifiers>
        <_>
          <internalNodes>
            0 -1 25 -1.7159961163997650e-02</internalNodes>
          <leafValues>
            3.4482759237289429e-01 -6.6349208354949951e-01</leafValues></_>
        <_>
          <internalNodes>
            0 -1 81 1.7035106429830194e-04</internalNodes>
          <leafValues>
            -7.2242450714111328e-01 2.8089195489883423e-01</leafValues></_>
        <_>
          <internalNodes>
            0 -1 4 2.0384538918733597e-02</internalNodes>
          <leafValues>
            -4.4051444530487061e-01 5.7769596576690674e-01</leafValues></_>
        <_>
          <internalNodes>
            0 -1 22 -4.0911407268140465e-05</internalNodes>
          <leafValues>
            4.1250082850456238e-01 -5.7354950904846191e-01</leafValues></_>
        <_>
          <internalNodes>
            0 -1 68 -6.1839930713176727e-02</internalNodes>
          <leafValues>
            3.3257052302360535e-01 -7.8093928098678589e-01</leafValues></_>
        <_>
          <internalNodes>
            0 -1 5 -4.3694823980331421e-01</internalNodes>
          <leafValues>
            -9.5101666450500488e-01 2.2236411273479462e-01</leafValues></_></weakClassifiers></_>
    <!-- stage 11 -->
    <_>
      <maxWeakCount>6</maxWeakCount>
      <stageThreshold>-1.1847214698791504e+00</stageThreshold>
      <weakClassifiers>
        <_>
          <internalNodes>
            0 -1 43 1.5744492411613464e-01</internalNodes>
          <leafValues>
            -5.4450261592864990e-01 7.9591834545135498e-01</leafValues></_>
        <_>
          <internalNodes>
            0 -1 61 -2.6937430724501610e-02</internalNodes>
          <leafValues>
            7.6726227998733521e-01 -3.0976831912994385e-01</leafValues></_>
        <_>
          <internalNodes>
            0 -1 10 -6.5725143940653652e-05</internalNodes>
          <leafValues>
            4.2834141850471497e-01 -5.4832595586776733e-01</leafValues></_>
        <_>
          <internalNodes>
            0 -1 66 8.2270393613725901e-04</internalNodes>
          <leafValues>
            -6.2607848644256592e-01 3.6246520280838013e-01</leafValues></_>
        <_>
          <internalNodes>
            0 -1 79 1.0612457117531449e-04</internalNodes>
          <leafValues>
            -5.4280656576156616e-01 3.9316779375076294e-01</leafValues></_>
        <_>
          <internalNodes>
            0 -1 38 -1.5167161473073065e-04</internalNodes>
          <leafValues>
            4.4861558079719543e-01 -5.3775763511657715e-01</leafValues></_></weakClassifiers></_>
    <!-- stage 12 -->
    <_>
      <maxWeakCount>5</maxWeakCount>
      <stageThreshold>-6.1600154638290405e-01</stageThreshold>
      <weakClassifiers>
        <_>
          <internalNodes>
            0 -1 42 2.2207871079444885e-01</internalNodes>
          <leafValues>
            -5.2820515632629395e-01 9.0243899822235107e-01</leafValues></_>
        <_>
          <internalNodes>
            0 -1 7 -1.2143725529313087e-02</internalNodes>
          <leafValues>
            4.9814873933792114e-01 -7.7541828155517578e-01</leafValues></_>
        <_>
          <internalNodes>
            0 -1 69 -4.2527996003627777e-02</internalNodes>
          <leafValues>
            2.9152309894561768e-01 -8.9647030830383301e-01</leafValues></_>
        <_>
          <internalNodes>
            0 -1 46 -3.9761565625667572e-02</internalNodes>
          <leafValues>
            6.6294479370117188e-01 -3.7794798612594604e-01</leafValues></_>
        <_>
          <internalNodes>
            0 -1 44 1.4763787388801575e-01</internalNodes>
          <leafValues>
            -2.6684603095054626e-01 7.8488808870315552e-01</leafValues></_></weakClassifiers></_>
    <!-- stage 13 -->
    <_>
      <maxWeakCount>5</maxWeakCount>
      <stageThreshold>-1.2895219326019287e+00</stageThreshold>
      <weakClassifiers>
        <_>
          <internalNodes>
            0 -1 30 -1.3698325492441654e-02</internalNodes>
          <leafValues>
            3.0434781312942505e-01 -6.4556962251663208e-01</leafValues></_>
        <_>
          <internalNodes>
            0 -1 29 -2.1027904003858566e-02</internalNodes>
          <leafValues>
            3.8851583003997803e-01 -5.7274693250656128e-01</leafValues></_>
        <_>
          <internalNodes>
            0 -1 21 8.3698136731982231e-03</internalNodes>
          <leafValues>
            2.3953786492347717e-01 -8.3628481626510620e-01</leafValues></_>
        <_>
          <internalNodes>
            0 -1 19 -2.0400688299559988e-05</internalNodes>
          <leafValues>
            4.2070689797401428e-01 -5.6351983547210693e-01</leafValues></_>
        <_>
          <internalNodes>
            0 -1 8 -2.9282052069902420e-02</internalNodes>
          <leafValues>
            -9.8972201347351074e-01 2.5277662277221680e-01</leafValues></_></weakClassifiers></_>
    <!-- stage 14 -->
    <_>
      <maxWeakCount>7</maxWeakCount>
      <stageThreshold>-1.0240284204483032e+00</stageThreshold>
      <weakClassifiers>
        <_>
          <internalNodes>
            0 -1 75 -1.2597456574440002e-02</internalNodes>
          <leafValues>
            7.9591834545135498e-01 -5.4450261592864990e-01</leafValues></_>
        <_>
          <internalNodes>
            0 -1 78 1.7816253239288926e-04</internalNodes>
          <leafValues>
            -4.6991547942161560e-01 4.7168648242950439e-01</leafValues></_>
        <_>
          <internalNodes>
            0 -1 54 -3.7280463147908449e-03</internalNodes>
          <leafValues>
            5.8769273757934570e-01 -4.2922699451446533e-01</leafValues></_>
        <_>
          <internalNodes>
            0 -1 60 -2.2826332133263350e-04</internalNodes>
          <leafValues>
            -8.7374609708786011e-01 3.0794179439544678e-01</leafValues></_>
        <_>
          <internalNodes>
            0 -1 28 -1.9493401850922965e-05</internalNodes>
          <leafValues>
            4.7760066390037537e-01 -5.5252999067306519e-01</leafValues></_>
        <_>
          <internalNodes>
            0 -1 77 -9.0959144290536642e-04</internalNodes>
          <leafValues>
            6.2152153253555298e-01 -3.6509680747985840e-01</leafValues></_>
        <_>
          <internalNodes>
            0 -1 27 -1.5752385370433331e-03</internalNodes>
          <leafValues>
            2.3925687372684479e-01 -9.2014300823211670e-01</leafValues></_></weakClassifiers></_>
    <!-- stage 15 -->
    <_>
      <maxWeakCount>5</maxWeakCount>
      <stageThreshold>-9.7126233577728271e-01</stageThreshold>
      <weakClassifiers>
        <_>
          <internalNodes>
            0 -1 48 -8.5590165108442307e-03</internalNodes>
          <leafValues>
            3.8181817531585693e-01 -6.5732085704803467e-01</leafValues></_>
        <_>
          <internalNodes>
            0 -1 65 7.2984563303180039e-05</internalNodes>
          <leafValues>
            -6.0269540548324585e-01 5.3247779607772827e-01</leafValues></_>
        <_>
          <internalNodes>
            0 -1 2 -9.1612096875905991e-03</internalNodes>
          <leafValues>
            -9.0983086824417114e-01 2.7179604768753052e-01</leafValues></_>
        <_>
          <internalNodes>
            0 -1 18 -4.2877317173406482e-04</internalNodes>
          <leafValues>
            5.4764693975448608e-01 -4.9730750918388367e-01</leafValues></_>
        <_>
          <internalNodes>
            0 -1 24 1.3095010817050934e-01</internalNodes>
          <leafValues>
            -3.6261203885078430e-01 6.5675324201583862e-01</leafValues></_></weakClassifiers></_>
    <!-- stage 16 -->
    <_>
      <maxWeakCount>6</maxWeakCount>
      <stageThreshold>-1.0171719789505005e+00</stageThreshold>
      <weakClassifiers>
        <_>
          <internalNodes>
            0 -1 20 1.5092477202415466e-02</internalNodes>
          <leafValues>
            -6.6548043489456177e-01 1.1999999731779099e-01</leafValues></_>
        <_>
          <internalNodes>
            0 -1 59 4.2927172034978867e-04</internalNodes>
          <leafValues>
            1.7972294986248016e-01 -8.0592691898345947e-01</leafValues></_>
        <_>
          <internalNodes>
            0 -1 58 -1.0169572196900845e-03</internalNodes>
          <leafValues>
            -8.8500458002090454e-01 1.6611166298389435e-01</leafValues></_>
        <_>
          <internalNodes>
            0 -1 0 1.1386355757713318e-01</internalNodes>
          <leafValues>
            1.8385404348373413e-01 -8.8084769248962402e-01</leafValues></_>
        <_>
          <internalNodes>
            0 -1 49 6.8169711157679558e-03</internalNodes>
          <leafValues>
            -3.7495693564414978e-01 5.9294062852859497e-01</leafValues></_>
        <_>
          <internalNodes>
            0 -1 70 -5.3543988615274429e-03</internalNodes>
          <leafValues>
            7.8145265579223633e-01 -2.4078743159770966e-01</leafValues></_></weakClassifiers></_></stages>
  <features>
    <_>
      <rects>
        <_>
          0 0 16 24 -1.</_>
        <_>
          8 0 8 24 2.</_></rects>
      <tilted>0</tilted></_>
    <_>
      <rects>
        <_>
          0 1 6 15 -1.</_>
        <_>
          3 1 3 15 2.</_></rects>
      <tilted>0</tilted></_>
    <_>
      <rects>
        <_>
          0 1 5 18 -1.</_>
        <_>
          0 7 5 6 3.</_></rects>
      <tilted>0</tilted></_>
    <_>
      <rects>
        <_>
          0 2 8 6 -1.</_>
        <_>
          4 2 4 6 2.</_></rects>
      <tilted>0</tilted></_>
    <_>
      <rects>
        <_>
          0 4 4 12 -1.</_>
        <_>
          2 4 2 12 2.</_></rects>
      <tilted>0</tilted></_>
    <_>
      <rects>
        <_>
          0 6 24 16 -1.</_>
        <_>
          0 14 24 8 2.</_></rects>
      <tilted>0</tilted></_>
    <_>
      <rects>
        <_>
          0 8 4 6 -1.</_>
        <_>
          2 8 2 6 2.</_></rects>
      <tilted>0</tilted></_>
    <_>
      <rects>
        <_>
          0 8 19 6 -1.</_>
        <_>
          0 10 19 2 3.</_></rects>
      <tilted>0</tilted></_>
    <_>
      <rects>
        <_>
          0 11 12 11 -1.</_>
        <_>
          6 11 6 11 2.</_></rects>
      <tilted>0</tilted></_>
    <_>
      <rects>
        <_>
          0 18 16 6 -1.</_>
        <_>
          0 18 8 3 2.</_>
        <_>
          8 21 8 3 2.</_></rects>
      <tilted>0</tilted></_>
    <_>
      <rects>
        <_>
          0 20 2 1 -1.</_>
        <_>
          1 20 1 1 2.</_></rects>
      <tilted>0</tilted></_>
    <_>
      <rects>
        <_>
          0 21 2 1 -1.</_>
        <_>
          1 21 1 1 2.</_></rects>
      <tilted>0</tilted></_>
    <_>
      <rects>
        <_>
          0 22 2 1 -1.</_>
        <_>
          1 22 1 1 2.</_></rects>
      <tilted>0</tilted></_>
    <_>
      <rects>
        <_>
          0 23 24 1 -1.</_>
        <_>
          8 23 8 1 3.</_></rects>
      <tilted>0</tilted></_>
    <_>
      <rects>
        <_>
          1 0 9 16 -1.</_>
        <_>
          4 0 3 16 3.</_></rects>
      <tilted>0</tilted></_>
    <_>
      <rects>
        <_>
          1 1 6 18 -1.</_>
        <_>
          4 1 3 18 2.</_></rects>
      <tilted>0</tilted></_>
    <_>
      <rects>
        <_>
          1 1 9 20 -1.</_>
        <_>
          4 1 3 20 3.</_></rects>
      <tilted>0</tilted></_>
    <_>
      <rects>
        <_>
          1 2 8 3 -1.</_>
        <_>
          5 2 4 3 2.</_></rects>
      <tilted>0</tilted></_>
    <_>
      <rects>
        <_>
          1 18 2 3 -1.</_>
        <_>
          2 18 1 3 2.</_></rects>
      <tilted>0</tilted></_>
    <_>
      <rects>
        <_>
          1 22 2 1 -1.</_>
        <_>
          2 22 1 1 2.</_></rects>
      <tilted>0</tilted></_>
    <_>
      <rects>
        <_>
          2 2 6 10 -1.</_>
        <_>
          4 2 2 10 3.</_></rects>
      <tilted>0</tilted></_>
    <_>
      <rects>
        <_>
          2 11 22 5 -1.</_>
        <_>
          13 11 11 5 2.</_></rects>
      <tilted>0</tilted></_>
    <_>
      <rects>
        <_>
          2 21 2 1 -1.</_>
        <_>
          3 21 1 1 2.</_></rects>
      <tilted>0</tilted></_>
    <_>
      <rects>
        <_>
          3 0 9 9 -1.</_>
        <_>
          3 3 9 3 3.</_></rects>
      <tilted>0</tilted></_>
    <_>
      <rects>
        <_>
          3 0 15 9 -1.</_>
        <_>
          3 3 15 3 3.</_></rects>
      <tilted>0</tilted></_>
    <_>
      <rects>
        <_>
          3 5 10 6 -1.</_>
        <_>
          3 5 5 3 2.</_>
        <_>
          8 8 5 3 2.</_></rects>
      <tilted>0</tilted></_>
    <_>
      <rects>
        <_>
          3 6 5 16 -1.</_>
        <_>
          3 14 5 8 2.</_></rects>
      <tilted>0</tilted></_>
    <_>
      <rects>
        <_>
          3 9 2 8 -1.</_>
        <_>
          3 13 2 4 2.</_></rects>
      <tilted>0</tilted></_>
    <_>
      <rects>
        <_>
          3 22 2 1 -1.</_>
        <_>
          4 22 1 1 2.</_></rects>
      <tilted>0</tilted></_>
    <_>
      <rects>
        <_>
          4 3 20 2 -1.</_>
        <_>
          14 3 10 2 2.</_></rects>
      <tilted>0</tilted></_>
    <_>
      <rects>
        <_>
          5 20 6 4 -1.</_>
        <_>
          5 22 6 2 2.</_></rects>
      <tilted>0</tilted></_>
    <_>
      <rects>
        <_>
          6 0 4 4 -1.</_>
        <_>
          6 2 4 2 2.</_></rects>
      <tilted>0</tilted></_>
    <_>
      <rects>
        <_>
          6 2 14 22 -1.</_>
        <_>
          6 13 14 11 2.</_></rects>
      <tilted>0</tilted></_>
    <_>
      <rects>
        <_>
          6 3 8 20 -1.</_>
        <_>
          6 13 8 10 2.</_></rects>
      <tilted>0</tilted></_>
    <_>
      <rects>
        <_>
          6 5 8 12 -1.</_>
        <_>
          6 9 8 4 3.</_></rects>
      <tilted>0</tilted></_>
    <_>
      <rects>
        <_>
          6 6 18 9 -1.</_>
        <_>
          6 9 18 3 3.</_></rects>
      <tilted>0</tilted></_>
    <_>
      <rects>
        <_>
          6 18 16 6 -1.</_>
        <_>
          6 21 16 3 2.</_></rects>
      <tilted>0</tilted></_>
    <_>
      <rects>
        <_>
          7 4 10 6 -1.</_>
        <_>
          7 6 10 2 3.</_></rects>
      <tilted>0</tilted></_>
    <_>
      <rects>
        <_>
          7 6 1 3 -1.</_>
        <_>
          7 7 1 1 3.</_></rects>
      <tilted>0</tilted></_>
    <_>
      <rects>
        <_>
          7 12 4 12 -1.</_>
        <_>
          7 18 4 6 2.</_></rects>
      <tilted>0</tilted></_>
    <_>
      <rects>
        <_>
          8 0 2 3 -1.</_>
        <_>
          8 1 2 1 3.</_></rects>
      <tilted>0</tilted></_>
    <_>
      <rects>
        <_>
          8 0 15 18 -1.</_>
        <_>
          8 6 15 6 3.</_></rects>
      <tilted>0</tilted></_>
    <_>
      <rects>
        <_>
          8 1 9 18 -1.</_>
        <_>
          8 7 9 6 3.</_></rects>
      <tilted>0</tilted></_>
    <_>
      <rects>
        <_>
          8 1 14 9 -1.</_>
        <_>
          8 4 14 3 3.</_></rects>
      <tilted>0</tilted></_>
    <_>
      <rects>
        <_>
          8 2 11 15 -1.</_>
        <_>
          8 7 11 5 3.</_></rects>
      <tilted>0</tilted></_>
    <_>
      <rects>
        <_>
          8 3 5 9 -1.</_>
        <_>
          8 6 5 3 3.</_></rects>
      <tilted>0</tilted></_>
    <_>
      <rects>
        <_>
          8 5 7 9 -1.</_>
        <_>
          8 8 7 3 3.</_></rects>
      <tilted>0</tilted></_>
    <_>
      <rects>
        <_>
          8 9 12 6 -1.</_>
        <_>
          8 11 12 2 3.</_></rects>
      <tilted>0</tilted></_>
    <_>
      <rects>
        <_>
          8 10 5 6 -1.</_>
        <_>
          8 12 5 2 3.</_></rects>
      <tilted>0</tilted></_>
    <_>
      <rects>
        <_>
          8 17 4 6 -1.</_>
        <_>
          8 19 4 2 3.</_></rects>
      <tilted>0</tilted></_>
    <_>
      <rects>
        <_>
          9 5 11 4 -1.</_>
        <_>
          9 7 11 2 2.</_></rects>
      <tilted>0</tilted></_>
    <_>
      <rects>
        <_>
          9 16 9 8 -1.</_>
        <_>
          9 20 9 4 2.</_></rects>
      <tilted>0</tilted></_>
    <_>
      <rects>
        <_>
          10 4 14 1 -1.</_>
        <_>
          17 4 7 1 2.</_></rects>
      <tilted>0</tilted></_>
    <_>
      <rects>
        <_>
          10 4 10 8 -1.</_>
        <_>
          10 8 10 4 2.</_></rects>
      <tilted>0</tilted></_>
    <_>
      <rects>
        <_>
          11 0 8 3 -1.</_>
        <_>
          11 1 8 1 3.</_></rects>
      <tilted>0</tilted></_>
    <_>
      <rects>
        <_>
          12 0 7 21 -1.</_>
        <_>
          12 7 7 7 3.</_></rects>
      <tilted>0</tilted></_>
    <_>
      <rects>
        <_>
          12 1 12 19 -1.</_>
        <_>
          18 1 6 19 2.</_></rects>
      <tilted>0</tilted></_>
    <_>
      <rects>
        <_>
          12 3 3 9 -1.</_>
        <_>
          12 6 3 3 3.</_></rects>
      <tilted>0</tilted></_>
    <_>
      <rects>
        <_>
          12 19 3 5 -1.</_>
        <_>
          13 19 1 5 3.</_></rects>
      <tilted>0</tilted></_>
    <_>
      <rects>
        <_>
          12 21 3 3 -1.</_>
        <_>
          13 21 1 3 3.</_></rects>
      <tilted>0</tilted></_>
    <_>
      <rects>
        <_>
          12 23 3 1 -1.</_>
        <_>
          13 23 1 1 3.</_></rects>
      <tilted>0</tilted></_>
    <_>
      <rects>
        <_>
          13 2 6 9 -1.</_>
        <_>
          13 5 6 3 3.</_></rects>
      <tilted>0</tilted></_>
    <_>
      <rects>
        <_>
          13 15 2 9 -1.</_>
        <_>
          13 18 2 3 3.</_></rects>
      <tilted>0</tilted></_>
    <_>
      <rects>
        <_>
          14 12 6 8 -1.</_>
        <_>
          14 12 3 4 2.</_>
        <_>
          17 16 3 4 2.</_></rects>
      <tilted>0</tilted></_>
    <_>
      <rects>
        <_>
          14 18 9 6 -1.</_>
        <_>
          17 18 3 6 3.</_></rects>
      <tilted>0</tilted></_>
    <_>
      <rects>
        <_>
          15 9 2 3 -1.</_>
        <_>
          16 9 1 3 2.</_></rects>
      <tilted>0</tilted></_>
    <_>
      <rects>
        <_>
          16 1 6 19 -1.</_>
        <_>
          18 1 2 19 3.</_></rects>
      <tilted>0</tilted></_>
    <_>
      <rects>
        <_>
          17 2 2 22 -1.</_>
        <_>
          17 13 2 11 2.</_></rects>
      <tilted>0</tilted></_>
    <_>
      <rects>
        <_>
          17 4 3 20 -1.</_>
        <_>
          17 14 3 10 2.</_></rects>
      <tilted>0</tilted></_>
    <_>
      <rects>
        <_>
          17 8 7 16 -1.</_>
        <_>
          17 16 7 8 2.</_></rects>
      <tilted>0</tilted></_>
    <_>
      <rects>
        <_>
          18 0 4 4 -1.</_>
        <_>
          18 0 2 2 2.</_>
        <_>
          20 2 2 2 2.</_></rects>
      <tilted>0</tilted></_>
    <_>
      <rects>
        <_>
          18 0 6 14 -1.</_>
        <_>
          21 0 3 14 2.</_></rects>
      <tilted>0</tilted></_>
    <_>
      <rects>
        <_>
          18 4 6 10 -1.</_>
        <_>
          21 4 3 10 2.</_></rects>
      <tilted>0</tilted></_>
    <_>
      <rects>
        <_>
          18 5 6 10 -1.</_>
        <_>
          18 5 3 5 2.</_>
        <_>
          21 10 3 5 2.</_></rects>
      <tilted>0</tilted></_>
    <_>
      <rects>
        <_>
          19 2 4 5 -1.</_>
        <_>
          21 2 2 5 2.</_></rects>
      <tilted>0</tilted></_>
    <_>
      <rects>
        <_>
          20 2 4 6 -1.</_>
        <_>
          20 2 2 3 2.</_>
        <_>
          22 5 2 3 2.</_></rects>
      <tilted>0</tilted></_>
    <_>
      <rects>
        <_>
          20 20 2 4 -1.</_>
        <_>
          21 20 1 4 2.</_></rects>
      <tilted>0</tilted></_>
    <_>
      <rects>
        <_>
          21 3 3 2 -1.</_>
        <_>
          22 3 1 2 3.</_></rects>
      <tilted>0</tilted></_>
    <_>
      <rects>
        <_>
          21 22 2 1 -1.</_>
        <_>
          22 22 1 1 2.</_></rects>
      <tilted>0</tilted></_>
    <_>
      <rects>
        <_>
          22 21 2 1 -1.</_>
        <_>
          23 21 1 1 2.</_></rects>
      <tilted>0</tilted></_>
    <_>
      <rects>
        <_>
          22 22 2 1 -1.</_>
        <_>
          23 22 1 1 2.</_></rects>
      <tilted>0</tilted></_>
    <_>
      <rects>
        <_>
          22 22 2 2 -1.</_>
        <_>
          23 22 1 2 2.</_></rects>
      <tilted>0</tilted></_></features></cascade>
</opencv_storage>
