<?xml version="1.0"?>
<opencv_storage>
<cascade>
  <stageType>BOOST</stageType>
  <featureType>HAAR</featureType>
  <height>24</height>
  <width>24</width>
  <stageParams>
    <boostType>GAB</boostType>
    <minHitRate>9.9500000476837158e-01</minHitRate>
    <maxFalseAlarm>5.0000000000000000e-01</maxFalseAlarm>
    <weightTrimRate>9.4999998807907104e-01</weightTrimRate>
    <maxDepth>1</maxDepth>
    <maxWeakCount>100</maxWeakCount></stageParams>
  <featureParams>
    <maxCatCount>0</maxCatCount>
    <featSize>1</featSize>
    <mode>BASIC</mode></featureParams>
  <stageNum>11</stageNum>
  <stages>
    <!-- stage 0 -->
    <_>
      <maxWeakCount>2</maxWeakCount>
      <stageThreshold>-1.8484812974929810e-01</stageThreshold>
      <weakClassifiers>
        <_>
          <internalNodes>
            0 -1 21 9.5283657312393188e-02</internalNodes>
          <leafValues>
            -9.5011335611343384e-01 9.6153843402862549e-01</leafValues></_>
        <_>
          <internalNodes>
            0 -1 23 -4.7516051679849625e-02</internalNodes>
          <leafValues>
            7.6526522636413574e-01 -9.9530911445617676e-01</leafValues></_></weakClassifiers></_>
    <!-- stage 1 -->
    <_>
      <maxWeakCount>2</maxWeakCount>
      <stageThreshold>-2.7877458930015564e-01</stageThreshold>
      <weakClassifiers>
        <_>
          <internalNodes>
            0 -1 20 -2.5532579049468040e-02</internalNodes>
          <leafValues>
            7.4725276231765747e-01 -9.7590363025665283e-01</leafValues></_>
        <_>
          <internalNodes>
            0 -1 12 3.1209077686071396e-02</internalNodes>
          <leafValues>
            -9.7017961740493774e-01 6.9712901115417480e-01</leafValues></_></weakClassifiers></_>
    <!-- stage 2 -->
    <_>
      <maxWeakCount>3</maxWeakCount>
      <stageThreshold>-1.1166968345642090e+00</stageThreshold>
      <weakClassifiers>
        <_>
          <internalNodes>
            0 -1 22 1.2271177023649216e-01</internalNodes>
          <leafValues>
            -8.9090907573699951e-01 7.8343951702117920e-01</leafValues></_>
        <_>
          <internalNodes>
            0 -1 0 -1.2278132885694504e-01</internalNodes>
          <leafValues>
            8.7364405393600464e-01 -8.7871170043945313e-01</leafValues></_>
        <_>
          <internalNodes>
            0 -1 8 2.1790817379951477e-02</internalNodes>
          <leafValues>
            -8.7143111228942871e-01 6.5292400121688843e-01</leafValues></_></weakClassifiers></_>
    <!-- stage 3 -->
    <_>
      <maxWeakCount>3</maxWeakCount>
      <stageThreshold>-1.1329364776611328e+00</stageThreshold>
      <weakClassifiers>
        <_>
          <internalNodes>
            0 -1 24 -4.7384880483150482e-02</internalNodes>
          <leafValues>
            7.3509931564331055e-01 -8.5201793909072876e-01</leafValues></_>
        <_>
          <internalNodes>
            0 -1 25 -7.2180286049842834e-02</internalNodes>
          <leafValues>
            5.3793013095855713e-01 -9.2392992973327637e-01</leafValues></_>
        <_>
          <internalNodes>
            0 -1 28 6.4770564436912537e-02</internalNodes>
          <leafValues>
            -8.1884866952896118e-01 6.6148805618286133e-01</leafValues></_></weakClassifiers></_>
    <!-- stage 4 -->
    <_>
      <maxWeakCount>3</maxWeakCount>
      <stageThreshold>-1.0416470766067505e+00</stageThreshold>
      <weakClassifiers>
        <_>
          <internalNodes>
            0 -1 3 -4.0469557046890259e-02</internalNodes>
          <leafValues>
            6.5517240762710571e-01 -8.0530971288681030e-01</leafValues></_>
        <_>
          <internalNodes>
            0 -1 18 -8.1473059952259064e-02</internalNodes>
          <leafValues>
            5.9253686666488647e-01 -8.8490778207778931e-01</leafValues></_>
        <_>
          <internalNodes>
            0 -1 26 6.8960733711719513e-02</internalNodes>
          <leafValues>
            -8.1647670269012451e-01 6.4857035875320435e-01</leafValues></_></weakClassifiers></_>
    <!-- stage 5 -->
    <_>
      <maxWeakCount>3</maxWeakCount>
      <stageThreshold>-1.1045993566513062e+00</stageThreshold>
      <weakClassifiers>
        <_>
          <internalNodes>
            0 -1 2 -3.3206224441528320e-02</internalNodes>
          <leafValues>
            6.6459625959396362e-01 -8.6238533258438110e-01</leafValues></_>
        <_>
          <internalNodes>
            0 -1 4 -4.5105308294296265e-02</internalNodes>
          <leafValues>
            5.0994670391082764e-01 -8.3824020624160767e-01</leafValues></_>
        <_>
          <internalNodes>
            0 -1 10 7.4045872315764427e-03</internalNodes>
          <leafValues>
            -7.5216078758239746e-01 7.1927613019943237e-01</leafValues></_></weakClassifiers></_>
    <!-- stage 6 -->
    <_>
      <maxWeakCount>3</maxWeakCount>
      <stageThreshold>-9.2114531993865967e-01</stageThreshold>
      <weakClassifiers>
        <_>
          <internalNodes>
            0 -1 7 -1.3057114556431770e-02</internalNodes>
          <leafValues>
            7.0992368459701538e-01 -7.7682405710220337e-01</leafValues></_>
        <_>
          <internalNodes>
            0 -1 30 2.1934337913990021e-02</internalNodes>
          <leafValues>
            -7.7187907695770264e-01 5.7449698448181152e-01</leafValues></_>
        <_>
          <internalNodes>
            0 -1 15 4.8919219523668289e-02</internalNodes>
          <leafValues>
            -7.1881830692291260e-01 7.1792364120483398e-01</leafValues></_></weakClassifiers></_>
    <!-- stage 7 -->
    <_>
      <maxWeakCount>2</maxWeakCount>
      <stageThreshold>-5.1915806531906128e-01</stageThreshold>
      <weakClassifiers>
        <_>
          <internalNodes>
            0 -1 16 4.7285906970500946e-02</internalNodes>
          <leafValues>
            -8.6374694108963013e-01 4.6236559748649597e-01</leafValues></_>
        <_>
          <internalNodes>
            0 -1 11 4.7972361790016294e-04</internalNodes>
          <leafValues>
            -9.4911909103393555e-01 3.4458890557289124e-01</leafValues></_></weakClassifiers></_>
    <!-- stage 8 -->
    <_>
      <maxWeakCount>4</maxWeakCount>
      <stageThreshold>-6.5343552827835083e-01</stageThreshold>
      <weakClassifiers>
        <_>
          <internalNodes>
            0 -1 19 -1.7773378640413284e-02</internalNodes>
          <leafValues>
            7.5806450843811035e-01 -7.6744186878204346e-01</leafValues></_>
        <_>
          <internalNodes>
            0 -1 6 -8.8656246662139893e-03</internalNodes>
          <leafValues>
            5.3276276588439941e-01 -7.6676696538925171e-01</leafValues></_>
        <_>
          <internalNodes>
            0 -1 9 1.3968102633953094e-02</internalNodes>
          <leafValues>
            -8.3915483951568604e-01 5.1135623455047607e-01</leafValues></_>
        <_>
          <internalNodes>
            0 -1 13 5.1618153229355812e-03</internalNodes>
          <leafValues>
            -9.3011260032653809e-01 4.3368908762931824e-01</leafValues></_></weakClassifiers></_>
    <!-- stage 9 -->
    <_>
      <maxWeakCount>3</maxWeakCount>
      <stageThreshold>-1.1972970962524414e+00</stageThreshold>
      <weakClassifiers>
        <_>
          <internalNodes>
            0 -1 29 1.4579555019736290e-02</internalNodes>
          <leafValues>
            -9.5454543828964233e-01 2.7346938848495483e-01</leafValues></_>
        <_>
          <internalNodes>
            0 -1 1 -7.5846403837203979e-02</internalNodes>
          <leafValues>
            7.0098799467086792e-01 -6.9360893964767456e-01</leafValues></_>
        <_>
          <internalNodes>
            0 -1 17 4.8738522455096245e-03</internalNodes>
          <leafValues>
            -7.7715748548507690e-01 4.5369559526443481e-01</leafValues></_></weakClassifiers></_>
    <!-- stage 10 -->
    <_>
      <maxWeakCount>3</maxWeakCount>
      <stageThreshold>-1.4020770788192749e+00</stageThreshold>
      <weakClassifiers>
        <_>
          <internalNodes>
            0 -1 14 6.0690209269523621e-02</internalNodes>
          <leafValues>
            -9.2462313175201416e-01 4.9748742580413818e-01</leafValues></_>
        <_>
          <internalNodes>
            0 -1 27 -2.8760461136698723e-02</internalNodes>
          <leafValues>
            3.5862985253334045e-01 -8.8286679983139038e-01</leafValues></_>
        <_>
          <internalNodes>
            0 -1 5 1.0566694661974907e-02</internalNodes>
          <leafValues>
            -9.2494618892669678e-01 4.0541279315948486e-01</leafValues></_></weakClassifiers></_></stages>
  <features>
    <_>
      <rects>
        <_>
          0 1 12 23 -1.</_>
        <_>
          4 1 4 23 3.</_></rects>
      <tilted>0</tilted></_>
    <_>
      <rects>
        <_>
          0 3 9 12 -1.</_>
        <_>
          3 3 3 12 3.</_></rects>
      <tilted>0</tilted></_>
    <_>
      <rects>
        <_>
          0 6 12 3 -1.</_>
        <_>
          4 6 4 3 3.</_></rects>
      <tilted>0</tilted></_>
    <_>
      <rects>
        <_>
          0 7 6 8 -1.</_>
        <_>
          3 7 3 8 2.</_></rects>
      <tilted>0</tilted></_>
    <_>
      <rects>
        <_>
          0 11 22 6 -1.</_>
        <_>
          0 14 22 3 2.</_></rects>
      <tilted>0</tilted></_>
    <_>
      <rects>
        <_>
          0 20 23 4 -1.</_>
        <_>
          0 22 23 2 2.</_></rects>
      <tilted>0</tilted></_>
    <_>
      <rects>
        <_>
          0 23 10 1 -1.</_>
        <_>
          5 23 5 1 2.</_></rects>
      <tilted>0</tilted></_>
    <_>
      <rects>
        <_>
          4 0 10 2 -1.</_>
        <_>
          4 1 10 1 2.</_></rects>
      <tilted>0</tilted></_>
    <_>
      <rects>
        <_>
          4 1 11 4 -1.</_>
        <_>
          4 3 11 2 2.</_></rects>
      <tilted>0</tilted></_>
    <_>
      <rects>
        <_>
          5 9 7 6 -1.</_>
        <_>
          5 11 7 2 3.</_></rects>
      <tilted>0</tilted></_>
    <_>
      <rects>
        <_>
          6 7 6 3 -1.</_>
        <_>
          9 7 3 3 2.</_></rects>
      <tilted>0</tilted></_>
    <_>
      <rects>
        <_>
          6 8 2 4 -1.</_>
        <_>
          7 8 1 4 2.</_></rects>
      <tilted>0</tilted></_>
    <_>
      <rects>
        <_>
          6 22 18 2 -1.</_>
        <_>
          15 22 9 2 2.</_></rects>
      <tilted>0</tilted></_>
    <_>
      <rects>
        <_>
          7 2 14 3 -1.</_>
        <_>
          7 3 14 1 3.</_></rects>
      <tilted>0</tilted></_>
    <_>
      <rects>
        <_>
          7 3 12 6 -1.</_>
        <_>
          7 5 12 2 3.</_></rects>
      <tilted>0</tilted></_>
    <_>
      <rects>
        <_>
          7 21 14 3 -1.</_>
        <_>
          14 21 7 3 2.</_></rects>
      <tilted>0</tilted></_>
    <_>
      <rects>
        <_>
          8 1 10 4 -1.</_>
        <_>
          8 3 10 2 2.</_></rects>
      <tilted>0</tilted></_>
    <_>
      <rects>
        <_>
          9 2 6 9 -1.</_>
        <_>
          11 2 2 9 3.</_></rects>
      <tilted>0</tilted></_>
    <_>
      <rects>
        <_>
          9 4 10 6 -1.</_>
        <_>
          9 7 10 3 2.</_></rects>
      <tilted>0</tilted></_>
    <_>
      <rects>
        <_>
          9 7 9 2 -1.</_>
        <_>
          9 8 9 1 2.</_></rects>
      <tilted>0</tilted></_>
    <_>
      <rects>
        <_>
          9 10 6 8 -1.</_>
        <_>
          9 14 6 4 2.</_></rects>
      <tilted>0</tilted></_>
    <_>
      <rects>
        <_>
          10 1 7 9 -1.</_>
        <_>
          10 4 7 3 3.</_></rects>
      <tilted>0</tilted></_>
    <_>
      <rects>
        <_>
          10 1 8 9 -1.</_>
        <_>
          10 4 8 3 3.</_></rects>
      <tilted>0</tilted></_>
    <_>
      <rects>
        <_>
          10 3 7 8 -1.</_>
        <_>
          10 7 7 4 2.</_></rects>
      <tilted>0</tilted></_>
    <_>
      <rects>
        <_>
          10 6 7 6 -1.</_>
        <_>
          10 8 7 2 3.</_></rects>
      <tilted>0</tilted></_>
    <_>
      <rects>
        <_>
          12 3 5 16 -1.</_>
        <_>
          12 11 5 8 2.</_></rects>
      <tilted>0</tilted></_>
    <_>
      <rects>
        <_>
          12 15 12 6 -1.</_>
        <_>
          18 15 6 6 2.</_></rects>
      <tilted>0</tilted></_>
    <_>
      <rects>
        <_>
          15 3 2 16 -1.</_>
        <_>
          15 11 2 8 2.</_></rects>
      <tilted>0</tilted></_>
    <_>
      <rects>
        <_>
          15 10 8 13 -1.</_>
        <_>
          19 10 4 13 2.</_></rects>
      <tilted>0</tilted></_>
    <_>
      <rects>
        <_>
          15 18 7 6 -1.</_>
        <_>
          15 21 7 3 2.</_></rects>
      <tilted>0</tilted></_>
    <_>
      <rects>
        <_>
          17 3 6 10 -1.</_>
        <_>
          17 3 3 5 2.</_>
        <_>
          20 8 3 5 2.</_></rects>
      <tilted>0</tilted></_></features></cascade>
</opencv_storage>
